<?xml version="1.0" encoding="UTF-8"?>
<PMML xmlns="http://www.dmg.org/PMML-4_4" version="4.4.1">
    <Header copyright="Copyright (c) 2021 Software AG" description="Default description">
        <Application name="Nyoka" version="5.4.0"/>
        <Timestamp>2023-07-14 06:17:32.604018</Timestamp>
    </Header>
    <DataDictionary numberOfFields="22">
        <DataField name="VMailMessage" optype="continuous" dataType="double"/>
        <DataField name="DayMins" optype="continuous" dataType="double"/>
        <DataField name="EveMins" optype="continuous" dataType="double"/>
        <DataField name="NightMins" optype="continuous" dataType="double"/>
        <DataField name="IntlMins" optype="continuous" dataType="double"/>
        <DataField name="CustServCalls" optype="continuous" dataType="double"/>
        <DataField name="DayCalls" optype="continuous" dataType="double"/>
        <DataField name="DayCharge" optype="continuous" dataType="double"/>
        <DataField name="EveCalls" optype="continuous" dataType="double"/>
        <DataField name="EveCharge" optype="continuous" dataType="double"/>
        <DataField name="NightCalls" optype="continuous" dataType="double"/>
        <DataField name="NightCharge" optype="continuous" dataType="double"/>
        <DataField name="IntlCalls" optype="continuous" dataType="double"/>
        <DataField name="IntlCharge" optype="continuous" dataType="double"/>
        <DataField name="AreaCode" optype="continuous" dataType="double"/>
        <DataField name="Phone" optype="continuous" dataType="double"/>
        <DataField name="AccountLength" optype="continuous" dataType="double"/>
        <DataField name="Churn" optype="continuous" dataType="double"/>
        <DataField name="IntlPlan" optype="continuous" dataType="double"/>
        <DataField name="VMailPlan" optype="continuous" dataType="double"/>
        <DataField name="State" optype="continuous" dataType="double"/>
        <DataField name="churn" optype="categorical" dataType="integer">
            <Value value="0"/>
            <Value value="1"/>
        </DataField>
    </DataDictionary>
    <MiningModel modelName="LightGBModel" functionName="classification">
        <MiningSchema>
            <MiningField name="VMailMessage" usageType="active" optype="continuous"/>
            <MiningField name="DayMins" usageType="active" optype="continuous"/>
            <MiningField name="EveMins" usageType="active" optype="continuous"/>
            <MiningField name="NightMins" usageType="active" optype="continuous"/>
            <MiningField name="IntlMins" usageType="active" optype="continuous"/>
            <MiningField name="CustServCalls" usageType="active" optype="continuous"/>
            <MiningField name="DayCalls" usageType="active" optype="continuous"/>
            <MiningField name="DayCharge" usageType="active" optype="continuous"/>
            <MiningField name="EveCalls" usageType="active" optype="continuous"/>
            <MiningField name="EveCharge" usageType="active" optype="continuous"/>
            <MiningField name="NightCalls" usageType="active" optype="continuous"/>
            <MiningField name="NightCharge" usageType="active" optype="continuous"/>
            <MiningField name="IntlCalls" usageType="active" optype="continuous"/>
            <MiningField name="IntlCharge" usageType="active" optype="continuous"/>
            <MiningField name="AreaCode" usageType="active" optype="continuous"/>
            <MiningField name="Phone" usageType="active" optype="continuous"/>
            <MiningField name="AccountLength" usageType="active" optype="continuous"/>
            <MiningField name="Churn" usageType="active" optype="continuous"/>
            <MiningField name="IntlPlan" usageType="active" optype="continuous"/>
            <MiningField name="VMailPlan" usageType="active" optype="continuous"/>
            <MiningField name="State" usageType="active" optype="continuous"/>
            <MiningField name="churn" usageType="target" optype="categorical"/>
        </MiningSchema>
        <Output>
            <OutputField name="probability_0" optype="continuous" dataType="double" feature="probability" value="0"/>
            <OutputField name="probability_1" optype="continuous" dataType="double" feature="probability" value="1"/>
            <OutputField name="predicted_churn" optype="categorical" dataType="integer" feature="predictedValue"/>
        </Output>
        <Segmentation multipleModelMethod="modelChain" missingThreshold="1">
            <Segment id="1" weight="1">
                <True/>
                <MiningModel modelName="MiningModel" functionName="regression">
                    <MiningSchema>
                        <MiningField name="VMailMessage" usageType="active"/>
                        <MiningField name="DayMins" usageType="active"/>
                        <MiningField name="EveMins" usageType="active"/>
                        <MiningField name="NightMins" usageType="active"/>
                        <MiningField name="IntlMins" usageType="active"/>
                        <MiningField name="CustServCalls" usageType="active"/>
                        <MiningField name="DayCalls" usageType="active"/>
                        <MiningField name="DayCharge" usageType="active"/>
                        <MiningField name="EveCalls" usageType="active"/>
                        <MiningField name="EveCharge" usageType="active"/>
                        <MiningField name="NightCalls" usageType="active"/>
                        <MiningField name="NightCharge" usageType="active"/>
                        <MiningField name="IntlCalls" usageType="active"/>
                        <MiningField name="IntlCharge" usageType="active"/>
                        <MiningField name="AreaCode" usageType="active"/>
                        <MiningField name="Phone" usageType="active"/>
                        <MiningField name="AccountLength" usageType="active"/>
                        <MiningField name="Churn" usageType="active"/>
                        <MiningField name="IntlPlan" usageType="active"/>
                        <MiningField name="VMailPlan" usageType="active"/>
                        <MiningField name="State" usageType="active"/>
                    </MiningSchema>
                    <Output>
                        <OutputField name="lgbValue" optype="continuous" dataType="double" feature="predictedValue"/>
                    </Output>
                    <Segmentation multipleModelMethod="sum" missingThreshold="1">
                        <Segment id="1" weight="1">
                            <True/>
                            <TreeModel modelName="DecisionTreeModel" functionName="regression" missingValuePenalty="1.0" noTrueChildStrategy="returnLastPrediction">
                                <MiningSchema>
                                    <MiningField name="VMailMessage" usageType="active"/>
                                    <MiningField name="DayMins" usageType="active"/>
                                    <MiningField name="EveMins" usageType="active"/>
                                    <MiningField name="NightMins" usageType="active"/>
                                    <MiningField name="IntlMins" usageType="active"/>
                                    <MiningField name="CustServCalls" usageType="active"/>
                                    <MiningField name="DayCalls" usageType="active"/>
                                    <MiningField name="DayCharge" usageType="active"/>
                                    <MiningField name="EveCalls" usageType="active"/>
                                    <MiningField name="EveCharge" usageType="active"/>
                                    <MiningField name="NightCalls" usageType="active"/>
                                    <MiningField name="NightCharge" usageType="active"/>
                                    <MiningField name="IntlCalls" usageType="active"/>
                                    <MiningField name="IntlCharge" usageType="active"/>
                                    <MiningField name="AreaCode" usageType="active"/>
                                    <MiningField name="Phone" usageType="active"/>
                                    <MiningField name="AccountLength" usageType="active"/>
                                    <MiningField name="Churn" usageType="active"/>
                                    <MiningField name="IntlPlan" usageType="active"/>
                                    <MiningField name="VMailPlan" usageType="active"/>
                                    <MiningField name="State" usageType="active"/>
                                </MiningSchema>
                                <Node>
                                    <True/>
                                    <Node>
                                        <SimplePredicate field="DayMins" operator="lessOrEqual" value="265.1500000000000341"/>
                                        <Node>
                                            <SimplePredicate field="CustServCalls" operator="lessOrEqual" value="3.5000000000000004"/>
                                            <Node>
                                                <SimplePredicate field="NightCharge" operator="lessOrEqual" value="0.0000000000000000"/>
                                                <Node>
                                                    <SimplePredicate field="DayMins" operator="lessOrEqual" value="221.8500000000000512"/>
                                                    <Node>
                                                        <SimplePredicate field="NightMins" operator="lessOrEqual" value="250.5500000000000398"/>
                                                        <Node>
                                                            <SimplePredicate field="DayCalls" operator="lessOrEqual" value="119.5000000000000142"/>
                                                            <Node score="-1.8810432885827564">
                                                                <SimplePredicate field="VMailMessage" operator="lessOrEqual" value="39.5000000000000071"/>
                                                            </Node>
                                                            <Node score="-1.8166227517835718">
                                                                <SimplePredicate field="VMailMessage" operator="greaterThan" value="39.5000000000000071"/>
                                                            </Node>
                                                        </Node>
                                                        <Node>
                                                            <SimplePredicate field="DayCalls" operator="greaterThan" value="119.5000000000000142"/>
                                                            <Node score="-1.870626548890679">
                                                                <SimplePredicate field="DayMins" operator="lessOrEqual" value="197.1500000000000057"/>
                                                            </Node>
                                                            <Node>
                                                                <SimplePredicate field="DayMins" operator="greaterThan" value="197.1500000000000057"/>
                                                                <Node score="-1.8519368335282194">
                                                                    <SimplePredicate field="DayCalls" operator="lessOrEqual" value="127.5000000000000142"/>
                                                                </Node>
                                                                <Node score="-1.700110305211095">
                                                                    <SimplePredicate field="DayCalls" operator="greaterThan" value="127.5000000000000142"/>
                                                                </Node>
                                                            </Node>
                                                        </Node>
                                                    </Node>
                                                    <Node>
                                                        <SimplePredicate field="NightMins" operator="greaterThan" value="250.5500000000000398"/>
                                                        <Node>
                                                            <SimplePredicate field="EveCalls" operator="lessOrEqual" value="122.5000000000000142"/>
                                                            <Node>
                                                                <SimplePredicate field="EveMins" operator="lessOrEqual" value="255.9500000000000171"/>
                                                                <Node>
                                                                    <SimplePredicate field="NightCalls" operator="lessOrEqual" value="83.5000000000000142"/>
                                                                    <Node score="-1.791398407680252">
                                                                        <SimplePredicate field="DayCalls" operator="lessOrEqual" value="95.5000000000000142"/>
                                                                    </Node>
                                                                    <Node score="-1.8922957840935308">
                                                                        <SimplePredicate field="DayCalls" operator="greaterThan" value="95.5000000000000142"/>
                                                                    </Node>
                                                                </Node>
                                                                <Node score="-1.8922957840935308">
                                                                    <SimplePredicate field="NightCalls" operator="greaterThan" value="83.5000000000000142"/>
                                                                </Node>
                                                            </Node>
                                                            <Node score="-1.7769844967640693">
                                                                <SimplePredicate field="EveMins" operator="greaterThan" value="255.9500000000000171"/>
                                                            </Node>
                                                        </Node>
                                                        <Node score="-1.7699959338956173">
                                                            <SimplePredicate field="EveCalls" operator="greaterThan" value="122.5000000000000142"/>
                                                        </Node>
                                                    </Node>
                                                </Node>
                                                <Node>
                                                    <SimplePredicate field="DayMins" operator="greaterThan" value="221.8500000000000512"/>
                                                    <Node>
                                                        <SimplePredicate field="EveMins" operator="lessOrEqual" value="267.0500000000000682"/>
                                                        <Node>
                                                            <SimplePredicate field="EveMins" operator="lessOrEqual" value="242.2500000000000284"/>
                                                            <Node>
                                                                <SimplePredicate field="EveCalls" operator="lessOrEqual" value="84.5000000000000142"/>
                                                                <Node score="-1.8572010444715206">
                                                                    <SimplePredicate field="DayCharge" operator="lessOrEqual" value="102.5000000000000142"/>
                                                                </Node>
                                                                <Node score="-1.5694241795710389">
                                                                    <SimplePredicate field="DayCharge" operator="greaterThan" value="102.5000000000000142"/>
                                                                </Node>
                                                            </Node>
                                                            <Node>
                                                                <SimplePredicate field="EveCalls" operator="greaterThan" value="84.5000000000000142"/>
                                                                <Node score="-1.7991597443274274">
                                                                    <SimplePredicate field="DayCharge" operator="lessOrEqual" value="82.5000000000000142"/>
                                                                </Node>
                                                                <Node score="-1.875361958681512">
                                                                    <SimplePredicate field="DayCharge" operator="greaterThan" value="82.5000000000000142"/>
                                                                </Node>
                                                            </Node>
                                                        </Node>
                                                        <Node score="-1.6439330113839214">
                                                            <SimplePredicate field="EveMins" operator="greaterThan" value="242.2500000000000284"/>
                                                        </Node>
                                                    </Node>
                                                    <Node score="-1.2563365630643797">
                                                        <SimplePredicate field="EveMins" operator="greaterThan" value="267.0500000000000682"/>
                                                    </Node>
                                                </Node>
                                            </Node>
                                            <Node>
                                                <SimplePredicate field="NightCharge" operator="greaterThan" value="0.0000000000000000"/>
                                                <Node score="-1.085116772787301">
                                                    <SimplePredicate field="EveCharge" operator="lessOrEqual" value="2.5000000000000004"/>
                                                </Node>
                                                <Node>
                                                    <SimplePredicate field="EveCharge" operator="greaterThan" value="2.5000000000000004"/>
                                                    <Node>
                                                        <SimplePredicate field="IntlMins" operator="lessOrEqual" value="13.1500000000000004"/>
                                                        <Node score="-1.8922957840935308">
                                                            <SimplePredicate field="DayMins" operator="lessOrEqual" value="221.8500000000000512"/>
                                                        </Node>
                                                        <Node score="-1.6985728213800355">
                                                            <SimplePredicate field="DayMins" operator="greaterThan" value="221.8500000000000512"/>
                                                        </Node>
                                                    </Node>
                                                    <Node score="-1.0851167727873006">
                                                        <SimplePredicate field="IntlMins" operator="greaterThan" value="13.1500000000000004"/>
                                                    </Node>
                                                </Node>
                                            </Node>
                                        </Node>
                                        <Node>
                                            <SimplePredicate field="CustServCalls" operator="greaterThan" value="3.5000000000000004"/>
                                            <Node>
                                                <SimplePredicate field="DayMins" operator="lessOrEqual" value="176.2500000000000284"/>
                                                <Node>
                                                    <SimplePredicate field="EveMins" operator="lessOrEqual" value="212.2500000000000284"/>
                                                    <Node score="-1.085116772787301">
                                                        <SimplePredicate field="EveMins" operator="lessOrEqual" value="191.8500000000000512"/>
                                                    </Node>
                                                    <Node score="-1.2061936244832352">
                                                        <SimplePredicate field="EveMins" operator="greaterThan" value="191.8500000000000512"/>
                                                    </Node>
                                                </Node>
                                                <Node score="-1.4382575902337762">
                                                    <SimplePredicate field="EveMins" operator="greaterThan" value="212.2500000000000284"/>
                                                </Node>
                                            </Node>
                                            <Node>
                                                <SimplePredicate field="DayMins" operator="greaterThan" value="176.2500000000000284"/>
                                                <Node>
                                                    <SimplePredicate field="EveCalls" operator="lessOrEqual" value="112.5000000000000142"/>
                                                    <Node score="-1.6905010312669733">
                                                        <SimplePredicate field="DayMins" operator="lessOrEqual" value="204.5500000000000398"/>
                                                    </Node>
                                                    <Node score="-1.8692335266276385">
                                                        <SimplePredicate field="DayMins" operator="greaterThan" value="204.5500000000000398"/>
                                                    </Node>
                                                </Node>
                                                <Node score="-1.6232361136581208">
                                                    <SimplePredicate field="EveCalls" operator="greaterThan" value="112.5000000000000142"/>
                                                </Node>
                                            </Node>
                                        </Node>
                                    </Node>
                                    <Node>
                                        <SimplePredicate field="DayMins" operator="greaterThan" value="265.1500000000000341"/>
                                        <Node>
                                            <SimplePredicate field="VMailMessage" operator="lessOrEqual" value="12.5000000000000018"/>
                                            <Node>
                                                <SimplePredicate field="EveMins" operator="lessOrEqual" value="185.0500000000000398"/>
                                                <Node score="-1.811577882962908">
                                                    <SimplePredicate field="DayMins" operator="lessOrEqual" value="283.1500000000000341"/>
                                                </Node>
                                                <Node score="-1.3676294267444813">
                                                    <SimplePredicate field="DayMins" operator="greaterThan" value="283.1500000000000341"/>
                                                </Node>
                                            </Node>
                                            <Node>
                                                <SimplePredicate field="EveMins" operator="greaterThan" value="185.0500000000000398"/>
                                                <Node score="-1.2061936244832347">
                                                    <SimplePredicate field="NightMins" operator="lessOrEqual" value="167.8500000000000512"/>
                                                </Node>
                                                <Node score="-1.0851167727873006">
                                                    <SimplePredicate field="NightMins" operator="greaterThan" value="167.8500000000000512"/>
                                                </Node>
                                            </Node>
                                        </Node>
                                        <Node score="-1.8026092272817276">
                                            <SimplePredicate field="VMailMessage" operator="greaterThan" value="12.5000000000000018"/>
                                        </Node>
                                    </Node>
                                </Node>
                            </TreeModel>
                        </Segment>
                        <Segment id="2" weight="1">
                            <True/>
                            <TreeModel modelName="DecisionTreeModel" functionName="regression" missingValuePenalty="1.0" noTrueChildStrategy="returnLastPrediction">
                                <MiningSchema>
                                    <MiningField name="VMailMessage" usageType="active"/>
                                    <MiningField name="DayMins" usageType="active"/>
                                    <MiningField name="EveMins" usageType="active"/>
                                    <MiningField name="NightMins" usageType="active"/>
                                    <MiningField name="IntlMins" usageType="active"/>
                                    <MiningField name="CustServCalls" usageType="active"/>
                                    <MiningField name="DayCalls" usageType="active"/>
                                    <MiningField name="DayCharge" usageType="active"/>
                                    <MiningField name="EveCalls" usageType="active"/>
                                    <MiningField name="EveCharge" usageType="active"/>
                                    <MiningField name="NightCalls" usageType="active"/>
                                    <MiningField name="NightCharge" usageType="active"/>
                                    <MiningField name="IntlCalls" usageType="active"/>
                                    <MiningField name="IntlCharge" usageType="active"/>
                                    <MiningField name="AreaCode" usageType="active"/>
                                    <MiningField name="Phone" usageType="active"/>
                                    <MiningField name="AccountLength" usageType="active"/>
                                    <MiningField name="Churn" usageType="active"/>
                                    <MiningField name="IntlPlan" usageType="active"/>
                                    <MiningField name="VMailPlan" usageType="active"/>
                                    <MiningField name="State" usageType="active"/>
                                </MiningSchema>
                                <Node>
                                    <True/>
                                    <Node>
                                        <SimplePredicate field="DayMins" operator="lessOrEqual" value="245.3500000000000512"/>
                                        <Node>
                                            <SimplePredicate field="CustServCalls" operator="lessOrEqual" value="3.5000000000000004"/>
                                            <Node>
                                                <SimplePredicate field="NightCharge" operator="lessOrEqual" value="0.0000000000000000"/>
                                                <Node>
                                                    <SimplePredicate field="DayMins" operator="lessOrEqual" value="221.8500000000000512"/>
                                                    <Node>
                                                        <SimplePredicate field="NightMins" operator="lessOrEqual" value="250.5500000000000398"/>
                                                        <Node>
                                                            <SimplePredicate field="DayCalls" operator="lessOrEqual" value="119.5000000000000142"/>
                                                            <Node score="-0.10309703503895994">
                                                                <SimplePredicate field="VMailMessage" operator="lessOrEqual" value="39.5000000000000071"/>
                                                            </Node>
                                                            <Node score="-0.03831716207957094">
                                                                <SimplePredicate field="VMailMessage" operator="greaterThan" value="39.5000000000000071"/>
                                                            </Node>
                                                        </Node>
                                                        <Node>
                                                            <SimplePredicate field="DayCalls" operator="greaterThan" value="119.5000000000000142"/>
                                                            <Node score="-0.09219092200722069">
                                                                <SimplePredicate field="DayMins" operator="lessOrEqual" value="197.1500000000000057"/>
                                                            </Node>
                                                            <Node>
                                                                <SimplePredicate field="DayMins" operator="greaterThan" value="197.1500000000000057"/>
                                                                <Node score="-0.0730478870146238">
                                                                    <SimplePredicate field="DayCalls" operator="lessOrEqual" value="127.5000000000000142"/>
                                                                </Node>
                                                                <Node score="0.06404829944508415">
                                                                    <SimplePredicate field="DayCalls" operator="greaterThan" value="127.5000000000000142"/>
                                                                </Node>
                                                            </Node>
                                                        </Node>
                                                    </Node>
                                                    <Node>
                                                        <SimplePredicate field="NightMins" operator="greaterThan" value="250.5500000000000398"/>
                                                        <Node>
                                                            <SimplePredicate field="EveCalls" operator="lessOrEqual" value="122.5000000000000142"/>
                                                            <Node score="-0.09823479658438655">
                                                                <SimplePredicate field="EveMins" operator="lessOrEqual" value="255.9500000000000171"/>
                                                            </Node>
                                                            <Node score="-0.0014697525789364588">
                                                                <SimplePredicate field="EveMins" operator="greaterThan" value="255.9500000000000171"/>
                                                            </Node>
                                                        </Node>
                                                        <Node score="0.004802437503961865">
                                                            <SimplePredicate field="EveCalls" operator="greaterThan" value="122.5000000000000142"/>
                                                        </Node>
                                                    </Node>
                                                </Node>
                                                <Node>
                                                    <SimplePredicate field="DayMins" operator="greaterThan" value="221.8500000000000512"/>
                                                    <Node>
                                                        <SimplePredicate field="EveMins" operator="lessOrEqual" value="270.6500000000000341"/>
                                                        <Node>
                                                            <SimplePredicate field="EveCalls" operator="lessOrEqual" value="92.5000000000000142"/>
                                                            <Node score="-0.06246201458662595">
                                                                <SimplePredicate field="EveMins" operator="lessOrEqual" value="197.4500000000000171"/>
                                                            </Node>
                                                            <Node score="0.05660436558506443">
                                                                <SimplePredicate field="EveMins" operator="greaterThan" value="197.4500000000000171"/>
                                                            </Node>
                                                        </Node>
                                                        <Node>
                                                            <SimplePredicate field="EveCalls" operator="greaterThan" value="92.5000000000000142"/>
                                                            <Node score="-0.0008850255032731768">
                                                                <SimplePredicate field="DayCharge" operator="lessOrEqual" value="83.5000000000000142"/>
                                                            </Node>
                                                            <Node score="-0.1065923522263532">
                                                                <SimplePredicate field="DayCharge" operator="greaterThan" value="83.5000000000000142"/>
                                                            </Node>
                                                        </Node>
                                                    </Node>
                                                    <Node score="0.3304774785234411">
                                                        <SimplePredicate field="EveMins" operator="greaterThan" value="270.6500000000000341"/>
                                                    </Node>
                                                </Node>
                                            </Node>
                                            <Node>
                                                <SimplePredicate field="NightCharge" operator="greaterThan" value="0.0000000000000000"/>
                                                <Node>
                                                    <SimplePredicate field="IntlMins" operator="lessOrEqual" value="13.1500000000000004"/>
                                                    <Node score="0.39597855075502375">
                                                        <SimplePredicate field="EveCharge" operator="lessOrEqual" value="2.5000000000000004"/>
                                                    </Node>
                                                    <Node>
                                                        <SimplePredicate field="EveCharge" operator="greaterThan" value="2.5000000000000004"/>
                                                        <Node score="-0.11554787452309918">
                                                            <SimplePredicate field="EveMins" operator="lessOrEqual" value="250.7500000000000284"/>
                                                        </Node>
                                                        <Node score="-0.029677265412645638">
                                                            <SimplePredicate field="EveMins" operator="greaterThan" value="250.7500000000000284"/>
                                                        </Node>
                                                    </Node>
                                                </Node>
                                                <Node score="0.3959785507550243">
                                                    <SimplePredicate field="IntlMins" operator="greaterThan" value="13.1500000000000004"/>
                                                </Node>
                                            </Node>
                                        </Node>
                                        <Node>
                                            <SimplePredicate field="CustServCalls" operator="greaterThan" value="3.5000000000000004"/>
                                            <Node>
                                                <SimplePredicate field="DayMins" operator="lessOrEqual" value="162.6500000000000057"/>
                                                <Node score="0.4365510154546258">
                                                    <SimplePredicate field="DayMins" operator="lessOrEqual" value="138.4000000000000341"/>
                                                </Node>
                                                <Node score="0.302625358505287">
                                                    <SimplePredicate field="DayMins" operator="greaterThan" value="138.4000000000000341"/>
                                                </Node>
                                            </Node>
                                            <Node>
                                                <SimplePredicate field="DayMins" operator="greaterThan" value="162.6500000000000057"/>
                                                <Node score="0.2213048971278377">
                                                    <SimplePredicate field="EveMins" operator="lessOrEqual" value="170.8500000000000512"/>
                                                </Node>
                                                <Node>
                                                    <SimplePredicate field="EveMins" operator="greaterThan" value="170.8500000000000512"/>
                                                    <Node score="-0.04346575827277178">
                                                        <SimplePredicate field="EveCalls" operator="lessOrEqual" value="102.5000000000000142"/>
                                                    </Node>
                                                    <Node score="0.10000704611250191">
                                                        <SimplePredicate field="EveCalls" operator="greaterThan" value="102.5000000000000142"/>
                                                    </Node>
                                                </Node>
                                            </Node>
                                        </Node>
                                    </Node>
                                    <Node>
                                        <SimplePredicate field="DayMins" operator="greaterThan" value="245.3500000000000512"/>
                                        <Node>
                                            <SimplePredicate field="VMailMessage" operator="lessOrEqual" value="10.5000000000000018"/>
                                            <Node>
                                                <SimplePredicate field="EveMins" operator="lessOrEqual" value="204.2500000000000284"/>
                                                <Node>
                                                    <SimplePredicate field="DayMins" operator="lessOrEqual" value="278.1500000000000341"/>
                                                    <Node score="-0.11705401149265965">
                                                        <SimplePredicate field="DayCalls" operator="lessOrEqual" value="102.5000000000000142"/>
                                                    </Node>
                                                    <Node>
                                                        <SimplePredicate field="DayCalls" operator="greaterThan" value="102.5000000000000142"/>
                                                        <Node score="-0.007483035923964133">
                                                            <SimplePredicate field="NightMins" operator="lessOrEqual" value="194.3500000000000512"/>
                                                        </Node>
                                                        <Node score="0.13435484075748427">
                                                            <SimplePredicate field="NightMins" operator="greaterThan" value="194.3500000000000512"/>
                                                        </Node>
                                                    </Node>
                                                </Node>
                                                <Node score="0.30216115959149586">
                                                    <SimplePredicate field="DayMins" operator="greaterThan" value="278.1500000000000341"/>
                                                </Node>
                                            </Node>
                                            <Node>
                                                <SimplePredicate field="EveMins" operator="greaterThan" value="204.2500000000000284"/>
                                                <Node score="0.2916619386185211">
                                                    <SimplePredicate field="NightMins" operator="lessOrEqual" value="169.7500000000000284"/>
                                                </Node>
                                                <Node>
                                                    <SimplePredicate field="NightMins" operator="greaterThan" value="169.7500000000000284"/>
                                                    <Node score="0.5102650757217779">
                                                        <SimplePredicate field="DayMins" operator="lessOrEqual" value="264.0500000000000682"/>
                                                    </Node>
                                                    <Node score="0.39707868043725886">
                                                        <SimplePredicate field="DayMins" operator="greaterThan" value="264.0500000000000682"/>
                                                    </Node>
                                                </Node>
                                            </Node>
                                        </Node>
                                        <Node>
                                            <SimplePredicate field="VMailMessage" operator="greaterThan" value="10.5000000000000018"/>
                                            <Node score="-0.08650118108073492">
                                                <SimplePredicate field="EveCalls" operator="lessOrEqual" value="110.5000000000000142"/>
                                            </Node>
                                            <Node score="0.04910539604309259">
                                                <SimplePredicate field="EveCalls" operator="greaterThan" value="110.5000000000000142"/>
                                            </Node>
                                        </Node>
                                    </Node>
                                </Node>
                            </TreeModel>
                        </Segment>
                        <Segment id="3" weight="1">
                            <True/>
                            <TreeModel modelName="DecisionTreeModel" functionName="regression" missingValuePenalty="1.0" noTrueChildStrategy="returnLastPrediction">
                                <MiningSchema>
                                    <MiningField name="VMailMessage" usageType="active"/>
                                    <MiningField name="DayMins" usageType="active"/>
                                    <MiningField name="EveMins" usageType="active"/>
                                    <MiningField name="NightMins" usageType="active"/>
                                    <MiningField name="IntlMins" usageType="active"/>
                                    <MiningField name="CustServCalls" usageType="active"/>
                                    <MiningField name="DayCalls" usageType="active"/>
                                    <MiningField name="DayCharge" usageType="active"/>
                                    <MiningField name="EveCalls" usageType="active"/>
                                    <MiningField name="EveCharge" usageType="active"/>
                                    <MiningField name="NightCalls" usageType="active"/>
                                    <MiningField name="NightCharge" usageType="active"/>
                                    <MiningField name="IntlCalls" usageType="active"/>
                                    <MiningField name="IntlCharge" usageType="active"/>
                                    <MiningField name="AreaCode" usageType="active"/>
                                    <MiningField name="Phone" usageType="active"/>
                                    <MiningField name="AccountLength" usageType="active"/>
                                    <MiningField name="Churn" usageType="active"/>
                                    <MiningField name="IntlPlan" usageType="active"/>
                                    <MiningField name="VMailPlan" usageType="active"/>
                                    <MiningField name="State" usageType="active"/>
                                </MiningSchema>
                                <Node>
                                    <True/>
                                    <Node>
                                        <SimplePredicate field="DayMins" operator="lessOrEqual" value="246.9000000000000341"/>
                                        <Node>
                                            <SimplePredicate field="CustServCalls" operator="lessOrEqual" value="3.5000000000000004"/>
                                            <Node>
                                                <SimplePredicate field="NightCharge" operator="lessOrEqual" value="0.0000000000000000"/>
                                                <Node>
                                                    <SimplePredicate field="DayMins" operator="lessOrEqual" value="221.8500000000000512"/>
                                                    <Node>
                                                        <SimplePredicate field="NightMins" operator="lessOrEqual" value="250.5500000000000398"/>
                                                        <Node>
                                                            <SimplePredicate field="DayCalls" operator="lessOrEqual" value="119.5000000000000142"/>
                                                            <Node score="-0.10063143689586983">
                                                                <SimplePredicate field="VMailMessage" operator="lessOrEqual" value="39.5000000000000071"/>
                                                            </Node>
                                                            <Node score="-0.035510826666534205">
                                                                <SimplePredicate field="VMailMessage" operator="greaterThan" value="39.5000000000000071"/>
                                                            </Node>
                                                        </Node>
                                                        <Node>
                                                            <SimplePredicate field="DayCalls" operator="greaterThan" value="119.5000000000000142"/>
                                                            <Node score="-0.08918763262616758">
                                                                <SimplePredicate field="DayMins" operator="lessOrEqual" value="197.1500000000000057"/>
                                                            </Node>
                                                            <Node>
                                                                <SimplePredicate field="DayMins" operator="greaterThan" value="197.1500000000000057"/>
                                                                <Node score="-0.0695831869423661">
                                                                    <SimplePredicate field="DayCalls" operator="lessOrEqual" value="127.5000000000000142"/>
                                                                </Node>
                                                                <Node score="0.05504102906622378">
                                                                    <SimplePredicate field="DayCalls" operator="greaterThan" value="127.5000000000000142"/>
                                                                </Node>
                                                            </Node>
                                                        </Node>
                                                    </Node>
                                                    <Node>
                                                        <SimplePredicate field="NightMins" operator="greaterThan" value="250.5500000000000398"/>
                                                        <Node>
                                                            <SimplePredicate field="EveCalls" operator="lessOrEqual" value="122.5000000000000142"/>
                                                            <Node score="-0.09550091223221709">
                                                                <SimplePredicate field="EveMins" operator="lessOrEqual" value="255.9500000000000171"/>
                                                            </Node>
                                                            <Node score="-0.0013242351028674064">
                                                                <SimplePredicate field="EveMins" operator="greaterThan" value="255.9500000000000171"/>
                                                            </Node>
                                                        </Node>
                                                        <Node score="0.004306698549156862">
                                                            <SimplePredicate field="EveCalls" operator="greaterThan" value="122.5000000000000142"/>
                                                        </Node>
                                                    </Node>
                                                </Node>
                                                <Node>
                                                    <SimplePredicate field="DayMins" operator="greaterThan" value="221.8500000000000512"/>
                                                    <Node>
                                                        <SimplePredicate field="EveMins" operator="lessOrEqual" value="270.6500000000000341"/>
                                                        <Node>
                                                            <SimplePredicate field="EveCalls" operator="lessOrEqual" value="92.5000000000000142"/>
                                                            <Node score="-0.08445404170157624">
                                                                <SimplePredicate field="NightMins" operator="lessOrEqual" value="188.3500000000000512"/>
                                                            </Node>
                                                            <Node score="0.04209244136475096">
                                                                <SimplePredicate field="NightMins" operator="greaterThan" value="188.3500000000000512"/>
                                                            </Node>
                                                        </Node>
                                                        <Node>
                                                            <SimplePredicate field="EveCalls" operator="greaterThan" value="92.5000000000000142"/>
                                                            <Node score="-0.0007970505301398845">
                                                                <SimplePredicate field="DayCharge" operator="lessOrEqual" value="83.5000000000000142"/>
                                                            </Node>
                                                            <Node score="-0.10549255407607934">
                                                                <SimplePredicate field="DayCharge" operator="greaterThan" value="83.5000000000000142"/>
                                                            </Node>
                                                        </Node>
                                                    </Node>
                                                    <Node score="0.2525095060439712">
                                                        <SimplePredicate field="EveMins" operator="greaterThan" value="270.6500000000000341"/>
                                                    </Node>
                                                </Node>
                                            </Node>
                                            <Node>
                                                <SimplePredicate field="NightCharge" operator="greaterThan" value="0.0000000000000000"/>
                                                <Node score="0.3016720219103157">
                                                    <SimplePredicate field="EveCharge" operator="lessOrEqual" value="2.5000000000000004"/>
                                                </Node>
                                                <Node>
                                                    <SimplePredicate field="EveCharge" operator="greaterThan" value="2.5000000000000004"/>
                                                    <Node>
                                                        <SimplePredicate field="IntlMins" operator="lessOrEqual" value="13.1500000000000004"/>
                                                        <Node score="-0.11386273456321855">
                                                            <SimplePredicate field="EveMins" operator="lessOrEqual" value="253.4500000000000171"/>
                                                        </Node>
                                                        <Node score="-0.027891148138578226">
                                                            <SimplePredicate field="EveMins" operator="greaterThan" value="253.4500000000000171"/>
                                                        </Node>
                                                    </Node>
                                                    <Node score="0.2984325414822178">
                                                        <SimplePredicate field="IntlMins" operator="greaterThan" value="13.1500000000000004"/>
                                                    </Node>
                                                </Node>
                                            </Node>
                                        </Node>
                                        <Node>
                                            <SimplePredicate field="CustServCalls" operator="greaterThan" value="3.5000000000000004"/>
                                            <Node>
                                                <SimplePredicate field="DayMins" operator="lessOrEqual" value="181.5500000000000398"/>
                                                <Node>
                                                    <SimplePredicate field="EveMins" operator="lessOrEqual" value="212.2500000000000284"/>
                                                    <Node score="0.33218016861417976">
                                                        <SimplePredicate field="NightMins" operator="lessOrEqual" value="213.5500000000000398"/>
                                                    </Node>
                                                    <Node score="0.22729768371376535">
                                                        <SimplePredicate field="NightMins" operator="greaterThan" value="213.5500000000000398"/>
                                                    </Node>
                                                </Node>
                                                <Node score="0.17055809167968813">
                                                    <SimplePredicate field="EveMins" operator="greaterThan" value="212.2500000000000284"/>
                                                </Node>
                                            </Node>
                                            <Node>
                                                <SimplePredicate field="DayMins" operator="greaterThan" value="181.5500000000000398"/>
                                                <Node score="-0.05981811399214393">
                                                    <SimplePredicate field="EveCalls" operator="lessOrEqual" value="106.5000000000000142"/>
                                                </Node>
                                                <Node score="0.12375564406258477">
                                                    <SimplePredicate field="EveCalls" operator="greaterThan" value="106.5000000000000142"/>
                                                </Node>
                                            </Node>
                                        </Node>
                                    </Node>
                                    <Node>
                                        <SimplePredicate field="DayMins" operator="greaterThan" value="246.9000000000000341"/>
                                        <Node>
                                            <SimplePredicate field="VMailMessage" operator="lessOrEqual" value="10.5000000000000018"/>
                                            <Node>
                                                <SimplePredicate field="EveMins" operator="lessOrEqual" value="185.0500000000000398"/>
                                                <Node>
                                                    <SimplePredicate field="DayMins" operator="lessOrEqual" value="278.1500000000000341"/>
                                                    <Node score="0.0013535479180850336">
                                                        <SimplePredicate field="EveCharge" operator="lessOrEqual" value="3.5000000000000004"/>
                                                    </Node>
                                                    <Node score="-0.11560497500591296">
                                                        <SimplePredicate field="EveCharge" operator="greaterThan" value="3.5000000000000004"/>
                                                    </Node>
                                                </Node>
                                                <Node score="0.19573207384759045">
                                                    <SimplePredicate field="DayMins" operator="greaterThan" value="278.1500000000000341"/>
                                                </Node>
                                            </Node>
                                            <Node>
                                                <SimplePredicate field="EveMins" operator="greaterThan" value="185.0500000000000398"/>
                                                <Node>
                                                    <SimplePredicate field="EveMins" operator="lessOrEqual" value="246.4500000000000171"/>
                                                    <Node score="0.10198478818054246">
                                                        <SimplePredicate field="DayMins" operator="lessOrEqual" value="260.6500000000000341"/>
                                                    </Node>
                                                    <Node>
                                                        <SimplePredicate field="DayMins" operator="greaterThan" value="260.6500000000000341"/>
                                                        <Node score="0.245409827774252">
                                                            <SimplePredicate field="NightMins" operator="lessOrEqual" value="186.1000000000000227"/>
                                                        </Node>
                                                        <Node score="0.32074146907259893">
                                                            <SimplePredicate field="NightMins" operator="greaterThan" value="186.1000000000000227"/>
                                                        </Node>
                                                    </Node>
                                                </Node>
                                                <Node score="0.3372368386825888">
                                                    <SimplePredicate field="EveMins" operator="greaterThan" value="246.4500000000000171"/>
                                                </Node>
                                            </Node>
                                        </Node>
                                        <Node>
                                            <SimplePredicate field="VMailMessage" operator="greaterThan" value="10.5000000000000018"/>
                                            <Node score="-0.08094995674092473">
                                                <SimplePredicate field="NightCalls" operator="lessOrEqual" value="124.5000000000000142"/>
                                            </Node>
                                            <Node score="0.03697249519457944">
                                                <SimplePredicate field="NightCalls" operator="greaterThan" value="124.5000000000000142"/>
                                            </Node>
                                        </Node>
                                    </Node>
                                </Node>
                            </TreeModel>
                        </Segment>
                        <Segment id="4" weight="1">
                            <True/>
                            <TreeModel modelName="DecisionTreeModel" functionName="regression" missingValuePenalty="1.0" noTrueChildStrategy="returnLastPrediction">
                                <MiningSchema>
                                    <MiningField name="VMailMessage" usageType="active"/>
                                    <MiningField name="DayMins" usageType="active"/>
                                    <MiningField name="EveMins" usageType="active"/>
                                    <MiningField name="NightMins" usageType="active"/>
                                    <MiningField name="IntlMins" usageType="active"/>
                                    <MiningField name="CustServCalls" usageType="active"/>
                                    <MiningField name="DayCalls" usageType="active"/>
                                    <MiningField name="DayCharge" usageType="active"/>
                                    <MiningField name="EveCalls" usageType="active"/>
                                    <MiningField name="EveCharge" usageType="active"/>
                                    <MiningField name="NightCalls" usageType="active"/>
                                    <MiningField name="NightCharge" usageType="active"/>
                                    <MiningField name="IntlCalls" usageType="active"/>
                                    <MiningField name="IntlCharge" usageType="active"/>
                                    <MiningField name="AreaCode" usageType="active"/>
                                    <MiningField name="Phone" usageType="active"/>
                                    <MiningField name="AccountLength" usageType="active"/>
                                    <MiningField name="Churn" usageType="active"/>
                                    <MiningField name="IntlPlan" usageType="active"/>
                                    <MiningField name="VMailPlan" usageType="active"/>
                                    <MiningField name="State" usageType="active"/>
                                </MiningSchema>
                                <Node>
                                    <True/>
                                    <Node>
                                        <SimplePredicate field="DayMins" operator="lessOrEqual" value="245.3500000000000512"/>
                                        <Node>
                                            <SimplePredicate field="CustServCalls" operator="lessOrEqual" value="3.5000000000000004"/>
                                            <Node>
                                                <SimplePredicate field="NightCharge" operator="lessOrEqual" value="0.0000000000000000"/>
                                                <Node>
                                                    <SimplePredicate field="DayMins" operator="lessOrEqual" value="221.8500000000000512"/>
                                                    <Node>
                                                        <SimplePredicate field="EveMins" operator="lessOrEqual" value="316.7000000000000455"/>
                                                        <Node>
                                                            <SimplePredicate field="VMailMessage" operator="lessOrEqual" value="39.5000000000000071"/>
                                                            <Node score="-0.09333618153137545">
                                                                <SimplePredicate field="NightMins" operator="lessOrEqual" value="250.5500000000000398"/>
                                                            </Node>
                                                            <Node>
                                                                <SimplePredicate field="NightMins" operator="greaterThan" value="250.5500000000000398"/>
                                                                <Node score="-0.08629441785208677">
                                                                    <SimplePredicate field="EveCalls" operator="lessOrEqual" value="122.5000000000000142"/>
                                                                </Node>
                                                                <Node score="0.007646491721616397">
                                                                    <SimplePredicate field="EveCalls" operator="greaterThan" value="122.5000000000000142"/>
                                                                </Node>
                                                            </Node>
                                                        </Node>
                                                        <Node score="-0.04160801851278027">
                                                            <SimplePredicate field="VMailMessage" operator="greaterThan" value="39.5000000000000071"/>
                                                        </Node>
                                                    </Node>
                                                    <Node score="-0.0124198252127566">
                                                        <SimplePredicate field="EveMins" operator="greaterThan" value="316.7000000000000455"/>
                                                    </Node>
                                                </Node>
                                                <Node>
                                                    <SimplePredicate field="DayMins" operator="greaterThan" value="221.8500000000000512"/>
                                                    <Node>
                                                        <SimplePredicate field="EveMins" operator="lessOrEqual" value="270.6500000000000341"/>
                                                        <Node>
                                                            <SimplePredicate field="EveCalls" operator="lessOrEqual" value="107.5000000000000142"/>
                                                            <Node>
                                                                <SimplePredicate field="IntlMins" operator="lessOrEqual" value="11.6500000000000004"/>
                                                                <Node>
                                                                    <SimplePredicate field="DayCalls" operator="lessOrEqual" value="106.5000000000000142"/>
                                                                    <Node score="0.11529235702473668">
                                                                        <SimplePredicate field="DayMins" operator="lessOrEqual" value="230.6500000000000057"/>
                                                                    </Node>
                                                                    <Node score="-0.0033530139584864007">
                                                                        <SimplePredicate field="DayMins" operator="greaterThan" value="230.6500000000000057"/>
                                                                    </Node>
                                                                </Node>
                                                                <Node score="-0.07682018428546772">
                                                                    <SimplePredicate field="DayCalls" operator="greaterThan" value="106.5000000000000142"/>
                                                                </Node>
                                                            </Node>
                                                            <Node score="-0.08930963496571276">
                                                                <SimplePredicate field="IntlMins" operator="greaterThan" value="11.6500000000000004"/>
                                                            </Node>
                                                        </Node>
                                                        <Node score="-0.10010188879924287">
                                                            <SimplePredicate field="EveCalls" operator="greaterThan" value="107.5000000000000142"/>
                                                        </Node>
                                                    </Node>
                                                    <Node score="0.2029379325996696">
                                                        <SimplePredicate field="EveMins" operator="greaterThan" value="270.6500000000000341"/>
                                                    </Node>
                                                </Node>
                                            </Node>
                                            <Node>
                                                <SimplePredicate field="NightCharge" operator="greaterThan" value="0.0000000000000000"/>
                                                <Node>
                                                    <SimplePredicate field="IntlMins" operator="lessOrEqual" value="13.1500000000000004"/>
                                                    <Node score="0.24732432540788316">
                                                        <SimplePredicate field="EveCharge" operator="lessOrEqual" value="2.5000000000000004"/>
                                                    </Node>
                                                    <Node>
                                                        <SimplePredicate field="EveCharge" operator="greaterThan" value="2.5000000000000004"/>
                                                        <Node score="-0.11244224841658866">
                                                            <SimplePredicate field="DayMins" operator="lessOrEqual" value="218.7500000000000284"/>
                                                        </Node>
                                                        <Node score="-0.022819114666075575">
                                                            <SimplePredicate field="DayMins" operator="greaterThan" value="218.7500000000000284"/>
                                                        </Node>
                                                    </Node>
                                                </Node>
                                                <Node score="0.24772988440157576">
                                                    <SimplePredicate field="IntlMins" operator="greaterThan" value="13.1500000000000004"/>
                                                </Node>
                                            </Node>
                                        </Node>
                                        <Node>
                                            <SimplePredicate field="CustServCalls" operator="greaterThan" value="3.5000000000000004"/>
                                            <Node>
                                                <SimplePredicate field="DayMins" operator="lessOrEqual" value="174.0500000000000398"/>
                                                <Node>
                                                    <SimplePredicate field="IntlMins" operator="lessOrEqual" value="11.0500000000000025"/>
                                                    <Node score="0.21992569501005194">
                                                        <SimplePredicate field="EveCalls" operator="lessOrEqual" value="97.5000000000000142"/>
                                                    </Node>
                                                    <Node score="0.2969798243225488">
                                                        <SimplePredicate field="EveCalls" operator="greaterThan" value="97.5000000000000142"/>
                                                    </Node>
                                                </Node>
                                                <Node score="0.15749309376073595">
                                                    <SimplePredicate field="IntlMins" operator="greaterThan" value="11.0500000000000025"/>
                                                </Node>
                                            </Node>
                                            <Node>
                                                <SimplePredicate field="DayMins" operator="greaterThan" value="174.0500000000000398"/>
                                                <Node score="0.12790655470645923">
                                                    <SimplePredicate field="EveMins" operator="lessOrEqual" value="170.8500000000000512"/>
                                                </Node>
                                                <Node>
                                                    <SimplePredicate field="EveMins" operator="greaterThan" value="170.8500000000000512"/>
                                                    <Node score="0.030924686688682756">
                                                        <SimplePredicate field="EveCharge" operator="lessOrEqual" value="3.5000000000000004"/>
                                                    </Node>
                                                    <Node score="-0.09136845462364088">
                                                        <SimplePredicate field="EveCharge" operator="greaterThan" value="3.5000000000000004"/>
                                                    </Node>
                                                </Node>
                                            </Node>
                                        </Node>
                                    </Node>
                                    <Node>
                                        <SimplePredicate field="DayMins" operator="greaterThan" value="245.3500000000000512"/>
                                        <Node>
                                            <SimplePredicate field="VMailMessage" operator="lessOrEqual" value="10.5000000000000018"/>
                                            <Node>
                                                <SimplePredicate field="EveMins" operator="lessOrEqual" value="185.0500000000000398"/>
                                                <Node>
                                                    <SimplePredicate field="DayMins" operator="lessOrEqual" value="278.1500000000000341"/>
                                                    <Node score="0.034641904493369256">
                                                        <SimplePredicate field="DayCharge" operator="lessOrEqual" value="98.5000000000000142"/>
                                                    </Node>
                                                    <Node score="-0.11478179357796946">
                                                        <SimplePredicate field="DayCharge" operator="greaterThan" value="98.5000000000000142"/>
                                                    </Node>
                                                </Node>
                                                <Node score="0.1599450580170753">
                                                    <SimplePredicate field="DayMins" operator="greaterThan" value="278.1500000000000341"/>
                                                </Node>
                                            </Node>
                                            <Node>
                                                <SimplePredicate field="EveMins" operator="greaterThan" value="185.0500000000000398"/>
                                                <Node score="0.15355979753735288">
                                                    <SimplePredicate field="NightMins" operator="lessOrEqual" value="169.7500000000000284"/>
                                                </Node>
                                                <Node>
                                                    <SimplePredicate field="NightMins" operator="greaterThan" value="169.7500000000000284"/>
                                                    <Node score="0.21100147467557112">
                                                        <SimplePredicate field="EveMins" operator="lessOrEqual" value="219.7500000000000284"/>
                                                    </Node>
                                                    <Node>
                                                        <SimplePredicate field="EveMins" operator="greaterThan" value="219.7500000000000284"/>
                                                        <Node score="0.31166853626223595">
                                                            <SimplePredicate field="DayMins" operator="lessOrEqual" value="268.2000000000001023"/>
                                                        </Node>
                                                        <Node score="0.24431321011409854">
                                                            <SimplePredicate field="DayMins" operator="greaterThan" value="268.2000000000001023"/>
                                                        </Node>
                                                    </Node>
                                                </Node>
                                            </Node>
                                        </Node>
                                        <Node>
                                            <SimplePredicate field="VMailMessage" operator="greaterThan" value="10.5000000000000018"/>
                                            <Node>
                                                <SimplePredicate field="EveCalls" operator="lessOrEqual" value="110.5000000000000142"/>
                                                <Node score="-0.11500456925677088">
                                                    <SimplePredicate field="VMailMessage" operator="lessOrEqual" value="31.5000000000000036"/>
                                                </Node>
                                                <Node score="-0.023419308616230095">
                                                    <SimplePredicate field="VMailMessage" operator="greaterThan" value="31.5000000000000036"/>
                                                </Node>
                                            </Node>
                                            <Node score="0.04815650306324957">
                                                <SimplePredicate field="EveCalls" operator="greaterThan" value="110.5000000000000142"/>
                                            </Node>
                                        </Node>
                                    </Node>
                                </Node>
                            </TreeModel>
                        </Segment>
                        <Segment id="5" weight="1">
                            <True/>
                            <TreeModel modelName="DecisionTreeModel" functionName="regression" missingValuePenalty="1.0" noTrueChildStrategy="returnLastPrediction">
                                <MiningSchema>
                                    <MiningField name="VMailMessage" usageType="active"/>
                                    <MiningField name="DayMins" usageType="active"/>
                                    <MiningField name="EveMins" usageType="active"/>
                                    <MiningField name="NightMins" usageType="active"/>
                                    <MiningField name="IntlMins" usageType="active"/>
                                    <MiningField name="CustServCalls" usageType="active"/>
                                    <MiningField name="DayCalls" usageType="active"/>
                                    <MiningField name="DayCharge" usageType="active"/>
                                    <MiningField name="EveCalls" usageType="active"/>
                                    <MiningField name="EveCharge" usageType="active"/>
                                    <MiningField name="NightCalls" usageType="active"/>
                                    <MiningField name="NightCharge" usageType="active"/>
                                    <MiningField name="IntlCalls" usageType="active"/>
                                    <MiningField name="IntlCharge" usageType="active"/>
                                    <MiningField name="AreaCode" usageType="active"/>
                                    <MiningField name="Phone" usageType="active"/>
                                    <MiningField name="AccountLength" usageType="active"/>
                                    <MiningField name="Churn" usageType="active"/>
                                    <MiningField name="IntlPlan" usageType="active"/>
                                    <MiningField name="VMailPlan" usageType="active"/>
                                    <MiningField name="State" usageType="active"/>
                                </MiningSchema>
                                <Node>
                                    <True/>
                                    <Node>
                                        <SimplePredicate field="DayMins" operator="lessOrEqual" value="246.9000000000000341"/>
                                        <Node>
                                            <SimplePredicate field="CustServCalls" operator="lessOrEqual" value="3.5000000000000004"/>
                                            <Node>
                                                <SimplePredicate field="NightCharge" operator="lessOrEqual" value="0.0000000000000000"/>
                                                <Node>
                                                    <SimplePredicate field="DayMins" operator="lessOrEqual" value="221.8500000000000512"/>
                                                    <Node>
                                                        <SimplePredicate field="EveMins" operator="lessOrEqual" value="301.4000000000000341"/>
                                                        <Node>
                                                            <SimplePredicate field="VMailMessage" operator="lessOrEqual" value="39.5000000000000071"/>
                                                            <Node>
                                                                <SimplePredicate field="NightMins" operator="lessOrEqual" value="250.5500000000000398"/>
                                                                <Node score="-0.0985459719538826">
                                                                    <SimplePredicate field="NightCalls" operator="lessOrEqual" value="119.5000000000000142"/>
                                                                </Node>
                                                                <Node>
                                                                    <SimplePredicate field="NightCalls" operator="greaterThan" value="119.5000000000000142"/>
                                                                    <Node score="-0.08790051829840494">
                                                                        <SimplePredicate field="DayCalls" operator="lessOrEqual" value="119.5000000000000142"/>
                                                                    </Node>
                                                                    <Node score="-0.024199773921969085">
                                                                        <SimplePredicate field="DayCalls" operator="greaterThan" value="119.5000000000000142"/>
                                                                    </Node>
                                                                </Node>
                                                            </Node>
                                                            <Node>
                                                                <SimplePredicate field="NightMins" operator="greaterThan" value="250.5500000000000398"/>
                                                                <Node>
                                                                    <SimplePredicate field="DayCalls" operator="lessOrEqual" value="99.5000000000000142"/>
                                                                    <Node>
                                                                        <SimplePredicate field="EveCalls" operator="lessOrEqual" value="119.5000000000000142"/>
                                                                        <Node score="-0.09873482256909477">
                                                                            <SimplePredicate field="DayMins" operator="lessOrEqual" value="186.0500000000000398"/>
                                                                        </Node>
                                                                        <Node score="0.0480462653197392">
                                                                            <SimplePredicate field="DayMins" operator="greaterThan" value="186.0500000000000398"/>
                                                                        </Node>
                                                                    </Node>
                                                                    <Node score="0.06615034569378411">
                                                                        <SimplePredicate field="EveCalls" operator="greaterThan" value="119.5000000000000142"/>
                                                                    </Node>
                                                                </Node>
                                                                <Node score="-0.10441445023206196">
                                                                    <SimplePredicate field="DayCalls" operator="greaterThan" value="99.5000000000000142"/>
                                                                </Node>
                                                            </Node>
                                                        </Node>
                                                        <Node score="-0.038687572167403456">
                                                            <SimplePredicate field="VMailMessage" operator="greaterThan" value="39.5000000000000071"/>
                                                        </Node>
                                                    </Node>
                                                    <Node score="-0.03014618068564226">
                                                        <SimplePredicate field="EveMins" operator="greaterThan" value="301.4000000000000341"/>
                                                    </Node>
                                                </Node>
                                                <Node>
                                                    <SimplePredicate field="DayMins" operator="greaterThan" value="221.8500000000000512"/>
                                                    <Node>
                                                        <SimplePredicate field="EveMins" operator="lessOrEqual" value="270.6500000000000341"/>
                                                        <Node>
                                                            <SimplePredicate field="EveCalls" operator="lessOrEqual" value="92.5000000000000142"/>
                                                            <Node score="-0.05167670947359479">
                                                                <SimplePredicate field="DayMins" operator="lessOrEqual" value="236.6500000000000057"/>
                                                            </Node>
                                                            <Node score="0.07306258062068316">
                                                                <SimplePredicate field="DayMins" operator="greaterThan" value="236.6500000000000057"/>
                                                            </Node>
                                                        </Node>
                                                        <Node>
                                                            <SimplePredicate field="EveCalls" operator="greaterThan" value="92.5000000000000142"/>
                                                            <Node score="0.004380390642693623">
                                                                <SimplePredicate field="DayCharge" operator="lessOrEqual" value="83.5000000000000142"/>
                                                            </Node>
                                                            <Node score="-0.10240301691879948">
                                                                <SimplePredicate field="DayCharge" operator="greaterThan" value="83.5000000000000142"/>
                                                            </Node>
                                                        </Node>
                                                    </Node>
                                                    <Node score="0.1740401897548837">
                                                        <SimplePredicate field="EveMins" operator="greaterThan" value="270.6500000000000341"/>
                                                    </Node>
                                                </Node>
                                            </Node>
                                            <Node>
                                                <SimplePredicate field="NightCharge" operator="greaterThan" value="0.0000000000000000"/>
                                                <Node score="0.21756479820732186">
                                                    <SimplePredicate field="EveCharge" operator="lessOrEqual" value="2.5000000000000004"/>
                                                </Node>
                                                <Node>
                                                    <SimplePredicate field="EveCharge" operator="greaterThan" value="2.5000000000000004"/>
                                                    <Node>
                                                        <SimplePredicate field="IntlMins" operator="lessOrEqual" value="13.1500000000000004"/>
                                                        <Node score="-0.11132703086527751">
                                                            <SimplePredicate field="EveMins" operator="lessOrEqual" value="253.4500000000000171"/>
                                                        </Node>
                                                        <Node score="-0.01792247588495422">
                                                            <SimplePredicate field="EveMins" operator="greaterThan" value="253.4500000000000171"/>
                                                        </Node>
                                                    </Node>
                                                    <Node score="0.2150721313795955">
                                                        <SimplePredicate field="IntlMins" operator="greaterThan" value="13.1500000000000004"/>
                                                    </Node>
                                                </Node>
                                            </Node>
                                        </Node>
                                        <Node>
                                            <SimplePredicate field="CustServCalls" operator="greaterThan" value="3.5000000000000004"/>
                                            <Node>
                                                <SimplePredicate field="DayMins" operator="lessOrEqual" value="161.9500000000000171"/>
                                                <Node score="0.23400939572325485">
                                                    <SimplePredicate field="DayMins" operator="lessOrEqual" value="138.4000000000000341"/>
                                                </Node>
                                                <Node score="0.1611425177765473">
                                                    <SimplePredicate field="DayMins" operator="greaterThan" value="138.4000000000000341"/>
                                                </Node>
                                            </Node>
                                            <Node>
                                                <SimplePredicate field="DayMins" operator="greaterThan" value="161.9500000000000171"/>
                                                <Node score="0.1315419528579408">
                                                    <SimplePredicate field="EveMins" operator="lessOrEqual" value="175.9500000000000171"/>
                                                </Node>
                                                <Node>
                                                    <SimplePredicate field="EveMins" operator="greaterThan" value="175.9500000000000171"/>
                                                    <Node score="-0.061604341453305324">
                                                        <SimplePredicate field="EveCalls" operator="lessOrEqual" value="102.5000000000000142"/>
                                                    </Node>
                                                    <Node score="0.071757462601233">
                                                        <SimplePredicate field="EveCalls" operator="greaterThan" value="102.5000000000000142"/>
                                                    </Node>
                                                </Node>
                                            </Node>
                                        </Node>
                                    </Node>
                                    <Node>
                                        <SimplePredicate field="DayMins" operator="greaterThan" value="246.9000000000000341"/>
                                        <Node>
                                            <SimplePredicate field="VMailMessage" operator="lessOrEqual" value="10.5000000000000018"/>
                                            <Node>
                                                <SimplePredicate field="EveMins" operator="lessOrEqual" value="185.0500000000000398"/>
                                                <Node>
                                                    <SimplePredicate field="DayMins" operator="lessOrEqual" value="278.1500000000000341"/>
                                                    <Node score="-0.1142763382340125">
                                                        <SimplePredicate field="IntlMins" operator="lessOrEqual" value="11.2500000000000018"/>
                                                    </Node>
                                                    <Node score="0.008295583164275446">
                                                        <SimplePredicate field="IntlMins" operator="greaterThan" value="11.2500000000000018"/>
                                                    </Node>
                                                </Node>
                                                <Node score="0.134656291683894">
                                                    <SimplePredicate field="DayMins" operator="greaterThan" value="278.1500000000000341"/>
                                                </Node>
                                            </Node>
                                            <Node>
                                                <SimplePredicate field="EveMins" operator="greaterThan" value="185.0500000000000398"/>
                                                <Node score="0.13647999389516433">
                                                    <SimplePredicate field="DayMins" operator="lessOrEqual" value="260.6500000000000341"/>
                                                </Node>
                                                <Node score="0.2150168830277532">
                                                    <SimplePredicate field="DayMins" operator="greaterThan" value="260.6500000000000341"/>
                                                </Node>
                                            </Node>
                                        </Node>
